net
{
     node_size = (0 0);
     name = "New BN";
     tree = "(C1,C2,C3,C4,C5,C6)";
     UnBBayes_Color_Probabilistic_Description = "-256";
     UnBBayes_Color_Probabilistic_Explanation = "-16711936";
}

node Age
{
     label = "C1";
     position = (114 165);
     states = ("<1" "1-4" "5-14" "15-29" "30-44" "45-59" "60-74" ">75");
}

node Race
{
     label = "C2";
     position = (97 87);
     states = ("Black" "Hispanic" "White" "Other");
}

node Sex
{
     label = "C3";
     position = (100 18);
     states = ("Male" "Female");
}

node diminished_vision
{
     label = "Objects you see appear blurrier than usual, either close up or far away ";
     position = (390 32);
     states = ("cataract" "chronic_glaucoma" "macular_degeneration" "dry_eye_of_unknown_cause" "State 4");
}

node C5
{
     label = "C5";
     position = (456 98);
     states = ("State 0" "State 1" "State 2" "State 3" "State 4");
}

node C6
{
     label = "C6";
     position = (430 162);
     states = ("State 0");
}

potential (Age)
{
 data = ( 0.125 0.125 0.125 0.125 0.125 0.125 0.125 0.125 );
}

potential (Race)
{
 data = ( 0.25 0.25 0.25 0.25 );
}

potential (Sex)
{
 data = ( 0.5 0.5 );
}

potential (diminished_vision | Age Race Sex)
{
 data = (((( 0.0 0.84 0.0 0.16000001 0.0 )
( 0.0 0.72413796 0.0 0.2758621 0.0 ))
(( 0.0 0.7142857 0.0 0.2857143 0.0 )
( 0.0 0.5 0.0 0.5 0.0 ))
(( 0.0 0.75 0.0 0.25 0.0 )
( 0.0 0.54545456 0.0 0.45454544 0.0 ))
(( 0.0 0.7692307 0.0 0.23076923 0.0 )
( 0.0 0.58823526 0.0 0.41176468 0.0 )))
((( 0.0 0.0 0.7142857 0.2857143 0.0 )
( 0.0 0.0 0.5555556 0.44444448 0.0 ))
(( 0.0 0.0 0.77777773 0.22222222 0.0 )
( 0.0 0.0 0.6666667 0.33333334 0.0 ))
(( 0.0 0.0 0.8333333 0.16666667 0.0 )
( 0.0 0.0 0.6666667 0.33333334 0.0 ))
(( 0.0 0.0 0.70000005 0.3 0.0 )
( 0.0 0.0 0.58823526 0.41176468 0.0 )))
((( 0.6428572 0.29999998 0.0 0.05714286 0.0 )
( 0.6081081 0.28378376 0.0 0.10810811 0.0 ))
(( 0.6818182 0.22727272 0.0 0.09090909 0.0 )
( 0.6 0.2 0.0 0.2 0.0 ))
(( 0.77464783 0.16901408 0.0 0.05633803 0.0 )
( 0.71428573 0.15584415 0.0 0.12987013 0.0 ))
(( 0.69767445 0.23255815 0.0 0.069767445 0.0 )
( 0.63829786 0.21276596 0.0 0.14893618 0.0 )))
((( 0.0 0.48837212 0.23255815 0.27906978 0.0 )
( 0.0 0.4117647 0.19607843 0.39215687 0.0 ))
(( 0.0 0.26315787 0.36842105 0.36842105 0.0 )
( 0.0 0.16129032 0.32258064 0.5161291 0.0 ))
(( 0.0 0.2608696 0.43478262 0.30434787 0.0 )
( 0.0 0.18750001 0.3125 0.50000006 0.0 ))
(( 0.0 0.38461536 0.26923078 0.34615383 0.0 )
( 0.0 0.25 0.25 0.5 0.0 )))
((( 0.35433075 0.33070868 0.15748033 0.15748033 0.0 )
( 0.30612248 0.2857143 0.13605443 0.27210885 0.0 ))
(( 0.28846154 0.19230768 0.28846154 0.23076923 0.0 )
( 0.21126762 0.14084508 0.28169015 0.36619723 0.0 ))
(( 0.37931034 0.17931035 0.27586207 0.16551724 0.0 )
( 0.30054644 0.1420765 0.27322406 0.284153 0.0 ))
(( 0.39473686 0.2631579 0.13157895 0.21052633 0.0 )
( 0.28846154 0.1923077 0.1923077 0.3269231 0.0 )))
((( 0.5013928 0.35097495 0.08356546 0.06406685 0.0 )
( 0.46632126 0.32642487 0.0777202 0.12953368 0.0 ))
(( 0.4743083 0.23715416 0.16996048 0.11857708 0.0 )
( 0.40955633 0.20477816 0.18088739 0.20477816 0.0 ))
(( 0.56410253 0.1923077 0.16666666 0.07692307 0.0 )
( 0.50574714 0.1724138 0.18390805 0.13793103 0.0 ))
(( 0.5442177 0.2675737 0.097505674 0.09070295 0.0 )
( 0.48879835 0.24032587 0.107942976 0.16293278 0.0 )))
((( 0.6445993 0.23780487 0.082752615 0.034843206 0.0 )
( 0.6026058 0.2223127 0.09364821 0.08143322 0.0 ))
(( 0.6000001 0.15393941 0.1818182 0.06424243 0.0 )
( 0.53980374 0.1384951 0.20174482 0.11995638 0.0 ))
(( 0.6713546 0.12139157 0.16802369 0.0392302 0.0 )
( 0.62208503 0.11248285 0.18998629 0.075445816 0.0 ))
(( 0.6757679 0.17406143 0.10238908 0.047781568 0.0 )
( 0.62658226 0.16139239 0.11708861 0.09493671 0.0 )))
((( 0.55517477 0.23714872 0.16655244 0.041124057 0.0 )
( 0.513308 0.21926488 0.18821292 0.07921419 0.0 ))
(( 0.46551722 0.13793102 0.33620685 0.060344823 0.0 )
( 0.40449437 0.11985018 0.35580522 0.11985018 0.0 ))
(( 0.5345572 0.11339092 0.31317493 0.038876887 0.0 )
( 0.47826084 0.101449266 0.34299514 0.07729468 0.0 ))
(( 0.57142854 0.16931215 0.2063492 0.052910052 0.0 )
( 0.52048194 0.15421686 0.22891566 0.09638554 0.0 ))));
}

potential (C5 | Sex)
{
 data = (( 0.2 0.3 0.0 0.1 0.4 )
( 0.2 0.3 0.0 0.1 0.4 ));
}

potential (C6)
{
 data = ( 1.0 );
}

